tree
version=v3
num_class=1
num_tree_per_iteration=1
label_index=0
max_feature_idx=27
objective=binary sigmoid:1
feature_names=Column_0 Column_1 Column_2 Column_3 Column_4 Column_5 Column_6 Column_7 Column_8 Column_9 Column_10 Column_11 Column_12 Column_13 Column_14 Column_15 Column_16 Column_17 Column_18 Column_19 Column_20 Column_21 Column_22 Column_23 Column_24 Column_25 Column_26 Column_27
feature_infos=[0.27500000000000002:6.6950000000000003] [-2.4169999999999998:2.4300000000000002] [-1.7430000000000001:1.7430000000000001] [0.019:5.7000000000000002] [-1.7430000000000001:1.7430000000000001] [0.159:4.1900000000000004] [-2.9409999999999998:2.9700000000000002] [-1.7410000000000001:1.7410000000000001] [0:2.173] [0.19:5.1929999999999996] [-2.9039999999999999:2.9089999999999998] [-1.742:1.7430000000000001] [0:2.2149999999999999] [0.26400000000000001:6.5229999999999997] [-2.7280000000000002:2.7269999999999999] [-1.742:1.742] [0:2.548] [0.36499999999999999:6.0679999999999996] [-2.4950000000000001:2.496] [-1.74:1.7430000000000001] [0:3.1019999999999999] [0.17199999999999999:13.098000000000001] [0.41899999999999998:7.3920000000000003] [0.46100000000000002:3.6819999999999999] [0.38400000000000001:6.5830000000000002] [0.092999999999999999:7.8600000000000003] [0.38900000000000001:4.5430000000000001] [0.48899999999999999:4.3159999999999998]
tree_sizes=10656 10712 9674 10396 9913

Tree=0
num_leaves=102
num_cat=0
split_feature=25 25 26 27 25 26 5 22 25 9 24 22 27 5 13 3 22 3 22 27 0 24 17 26 24 27 24 14 5 22 0 5 25 25 21 5 27 9 21 27 15 21 21 11 24 26 21 9 15 25 24 27 2 0 5 4 19 1 0 21 17 0 5 19 25 17 9 21 9 14 22 18 2 6 25 9 12 18 18 6 5 15 24 0 13 4 22 7 8 19 25 12 27 4 7 15 4 0 1 13 1
split_gain=333.201 226.241 132.881 129.627 63.3642 48.6639 48.1001 45.6413 36.0331 35.2638 30.4007 64.4809 29.9443 32.6909 24.5457 23.6037 18.3764 18.3138 17.9036 16.6901 16.1311 15.1996 21.8153 17.3326 14.2255 14.1523 13.8253 13.2798 12.8159 12.6782 12.391 11.7823 14.7841 11.6472 11.5259 12.0989 11.6383 11.4734 11.2495 11.1514 11.0731 10.9518 10.4915 10.3976 10.0593 10.0151 9.74592 9.40642 9.18562 9.14541 8.28177 11.757 8.5468 8.20257 12.0742 7.87692 7.69869 7.6433 7.4434 7.37019 7.23989 7.02092 10.0065 6.94301 6.78876 6.73868 9.9078 9.25613 6.60369 6.42139 6.31775 6.23781 6.01194 6.00228 5.85552 6.71715 5.76295 5.02785 4.99624 4.87286 4.86373 4.8333 4.76968 6.2539 4.68441 7.23482 4.32617 4.32347 4.14339 3.97883 3.96371 3.78837 3.74884 3.38153 2.90229 2.32296 2.17445 1.31977 0.767344 0.648808 0.581983
threshold=1.0675000000000001 0.6695000000000001 0.77650000000000008 0.90450000000000019 1.5585000000000002 0.86550000000000005 0.82050000000000012 1.0265000000000002 0.89550000000000007 1.1375000000000002 1.0265000000000002 0.99050000000000005 1.0475000000000001 0.89650000000000019 1.3005000000000002 1.6895000000000002 0.7985000000000001 1.8335000000000001 1.0605000000000002 0.83850000000000013 1.0045000000000002 1.2565000000000002 1.4495000000000002 1.0005000000000002 0.82250000000000012 0.79950000000000021 1.3025000000000002 0.77350000000000019 1.1085000000000003 0.77550000000000019 1.5955000000000001 0.87650000000000017 0.98450000000000004 0.58150000000000002 0.91150000000000009 1.0815000000000003 0.85950000000000004 1.2545000000000002 1.0425000000000002 0.7965000000000001 0.64900000000000013 0.99750000000000016 1.4615000000000002 -0.62649999999999995 0.74850000000000005 0.77250000000000008 0.87850000000000017 0.92650000000000021 0.45350000000000007 2.0390000000000001 1.2685000000000002 0.89550000000000007 0.12150000000000001 0.9425 0.82950000000000002 -0.55349999999999999 -0.31149999999999994 0.33550000000000008 1.0375000000000003 0.9125000000000002 0.74450000000000005 1.2625000000000002 1.3155000000000003 0.075500000000000012 1.2185000000000004 0.74850000000000005 1.0555000000000001 1.3625000000000003 0.77850000000000008 -0.24549999999999997 0.96950000000000014 0.070500000000000021 0.69550000000000012 0.72350000000000014 0.79550000000000021 0.73750000000000016 1.6610000000000003 -0.22149999999999997 -0.05849999999999999 0.24550000000000002 1.0575000000000003 0.23550000000000001 0.79950000000000021 0.6905 1.1705000000000003 0.31550000000000006 1.0285000000000002 0.41550000000000004 1.6300000000000001 -0.19999999999999998 0.95950000000000013 1.0000000180025095e-35 0.81850000000000012 -0.11749999999999998 -0.033499999999999995 0.047500000000000007 -0.33349999999999996 0.90350000000000008 1.0370000000000001 0.96550000000000014 -0.92899999999999994
decision_type=2 2 2 2 2 2 2 2 2 2 2 2 2 2 2 2 2 2 2 2 2 2 2 2 2 2 2 2 2 2 2 2 2 2 2 2 2 2 2 2 2 2 2 2 2 2 2 2 2 2 2 2 2 2 2 2 2 2 2 2 2 2 2 2 2 2 2 2 2 2 2 2 2 2 2 2 2 2 2 2 2 2 2 2 2 2 2 2 2 2 2 2 2 2 2 2 2 2 2 2 2
left_child=1 9 6 5 7 8 27 12 25 14 11 20 13 47 16 28 53 21 34 69 -5 23 89 -6 94 59 97 58 65 -15 88 32 38 44 36 56 45 42 86 68 71 -26 84 -17 -20 76 -16 64 -8 61 51 52 -31 54 78 -39 87 -55 82 73 -49 62 70 -47 81 66 -12 72 -10 -11 -25 -21 -67 77 75 -33 -18 -4 -1 -58 -45 -2 83 -3 85 -9 92 -36 -30 -23 98 -43 -7 -38 -13 -92 -51 -14 100 -88 -76
right_child=4 2 3 10 17 31 48 37 39 19 15 24 26 29 46 43 18 -19 33 40 -22 22 -24 49 41 -27 -28 -29 30 50 -32 74 -34 -35 35 -37 93 55 -40 -41 -42 91 -44 80 -46 63 -48 60 -50 96 -52 -53 -54 57 -56 -57 79 -59 -60 -61 -62 -63 -64 -65 -66 67 -68 -69 -70 -71 -72 -73 -74 -75 90 -77 -78 -79 -80 -81 -82 -83 -84 -85 -86 -87 99 -89 -90 -91 95 -93 -94 -95 -96 -97 -98 -99 -100 -101 -102
leaf_value=-0.13284598327234964 0.021090185835168238 -0.084945161191994772 0.35732439481364081 0.033440299199254467 0.078388789508231471 0.41060761195203443 0.30384176933115026 0.093451809406141242 0.06230287012108799 0.38185077441575577 0.044544817741517931 0.39223078772869829 -0.19195705992662582 0.2708895171192125 0.050622017889193002 0.22759794887431872 -0.04600831092261029 -0.3027237621256299 0.15234277274194508 0.067918664463345185 -0.20439005711222835 -0.0079301021592931842 0.232648631836223 -0.21349502979865442 0.28131884946911873 0.16735931549941166 -0.022137025531164839 0.11097308775398369 0.33027536249985501 0.0089109149566426599 0.16305022062118213 0.46884233505468742 0.17181085979510335 0.2417227402084578 0.14341989950924749 0.19517256425889329 -0.11740254883114232 0.37184545426630478 0.19517256425889329 -0.060290979954224833 -0.061806184842796097 -0.014834833297086347 0.22611970020254185 -0.075443028839937587 -0.065924434027118062 -0.045138931068511967 0.27219318366295076 -0.081190357727621787 0.098805533345759769 -0.17675378707578215 0.21352818919472827 -0.10195911438993507 0.21537855461164709 0.23549635733602009 0.19146613999300355 0.16907316005325296 -0.13846177761460687 0.049494918112431202 -0.20092760271034804 0.25941725153431561 0.11027779893065662 -0.23580221288039832 0.054191167182272029 0.16305022062118213 -0.2088597709764739 0.34094915427888794 0.27547842335317124 0.098805533345759769 0.25533390276681001 0.20922608960039193 -0.05708231077842682 0.26239154261188147 0.18947343877478323 0.27547842335317124 0.44934698177316346 0.28131884946911873 -0.1896169183308723 0.50033482881714941 0.043693669261451393 0.0026647161202157654 0.098805533345759769 -0.14211204393707405 -0.13237800041049491 0.10667865678637525 0.13350559591736136 -0.095036195502497312 0.43609014154172698 -0.019291318263472496 0.45861749941752455 -0.13771172289081224 0.43856109105232022 0.13817115054883719 0.3211909892991448 -0.25405354449273421 0.26336672001436212 0.32366193880973804 -0.28264729735206046 -0.27639397225865359 0.43341327957191783 0.50033482881714941 0.49303429617221511
leaf_weight=12.950487196445465 15.44096550345421 14.693822011351587 18.180491641163826 21.418113440275192 14.693822011351584 44.579561695456505 23.410496085882187 18.678587302565575 13.69763068854809 15.191917672753332 18.429539471864704 12.950487196445467 14.444774180650713 17.433348149061203 12.452391535043715 13.199535027146338 30.383835345506668 17.184300318360329 14.942869842052458 12.950487196445467 24.406687408685684 19.674778625369072 12.701439365744589 20.172874286770821 13.697630688548086 20.421922117471695 20.670969948172569 16.437156826257706 21.169065609574318 16.68620465695858 12.452391535043715 12.701439365744593 16.437156826257706 14.693822011351584 13.448582857847216 12.452391535043715 12.950487196445467 12.452391535043715 12.452391535043715 13.199535027146338 12.452391535043715 13.199535027146339 20.421922117471695 13.199535027146341 19.425730794668198 13.199535027146341 21.916209101676941 14.444774180650713 13.946678519248961 12.701439365744589 13.946678519248961 15.939061164855955 15.440965503454207 23.410496085882187 12.950487196445463 19.923826456069946 21.916209101676941 14.195726349949835 17.682395979762077 22.41430476307869 17.433348149061203 14.942869842052458 15.690013334155081 12.452391535043715 19.176682963967323 32.625265821814537 12.452391535043715 12.452391535043715 14.693822011351584 19.923826456069946 21.169065609574318 13.448582857847212 15.440965503454207 12.452391535043715 15.690013334155081 19.176682963967323 17.682395979762077 21.418113440275192 12.701439365744591 17.682395979762077 12.452391535043715 13.697630688548086 16.437156826257706 12.701439365744589 20.172874286770821 14.444774180650709 12.452391535043718 12.701439365744589 19.176682963967323 18.180491641163826 16.188108995556835 12.701439365744591 32.376217991113663 16.437156826257706 15.191917672753332 12.452391535043715 19.923826456069946 15.191917672753332 14.942869842052458 12.701439365744589 54.790522754192352
leaf_count=52 62 59 73 86 59 179 94 75 55 61 74 52 58 70 50 53 122 69 60 52 98 79 51 81 55 82 83 66 85 67 50 51 66 59 54 50 52 50 50 53 50 53 82 53 78 53 88 58 56 51 56 64 62 94 52 80 88 57 71 90 70 60 63 50 77 131 50 50 59 80 85 54 62 50 63 77 71 86 51 71 50 55 66 51 81 58 50 51 77 73 65 51 130 66 61 50 80 61 60 51 220
internal_value=0.123586 0.179273 0.239838 0.272177 -0.0137022 0.344561 0.0407009 0.0409018 0.246815 0.0587972 0.17129 0.0900001 -0.0131273 0.0292739 0.0316396 0.221723 0.0136722 -0.105969 -0.0144908 0.183978 -0.0932302 -0.0860628 0.00584062 -0.125011 0.21395 0.314851 -0.147678 -0.0487212 0.259001 0.120204 0.33745 0.392731 0.349189 0.0926909 -0.0434947 0.0144077 -0.087411 0.147818 0.374639 0.0915924 0.0936577 0.136686 0.104232 0.0833621 0.0289744 -0.0449854 0.191914 -0.0608086 0.227295 -0.153584 0.0778422 0.0384721 0.108143 0.0988055 0.0340427 0.247063 -0.0198281 0.165284 -0.0913926 0.355301 0.0235188 -0.113769 -0.081795 0.0559238 -0.116447 0.213684 0.137663 0.252477 0.162205 0.283908 -0.133404 0.16699 0.292289 0.39659 0.431814 0.356035 -0.0988384 0.434676 -0.0454331 -0.075443 0.00914365 -0.0556288 -0.0472051 0.00389861 0.0575268 0.011254 0.396525 0.0643887 0.391277 -0.0702594 0.452993 0.0601969 0.372989 -0.193834 0.322667 0.388605 -0.241422 -0.23524 0.474581 0.468531 0.483309
internal_weight=0 1240.26 825.345 710.035 503.077 413.419 115.309 316.042 136.478 414.914 296.616 113.566 209.947 159.64 340.946 183.05 306.578 187.035 230.369 73.9672 45.8248 169.851 50.5567 119.294 67.741 94.8872 50.3077 77.952 144.199 79.4463 52.7981 276.941 130.999 49.0624 181.307 78.201 103.106 106.094 114.562 41.591 38.8515 39.5986 73.7182 38.8515 34.3686 73.7182 34.3686 80.1934 37.3572 104.6 62.0129 48.0662 32.1272 76.2086 38.6024 32.3762 65.7486 37.6062 61.5148 74.4653 31.8781 71.9748 57.032 25.6519 48.3153 91.4006 30.8819 60.5186 28.3915 35.1157 41.3419 26.3991 48.0662 52.051 145.942 31.8781 48.0662 39.5986 25.6519 39.5986 25.6519 29.1386 43.8324 27.3953 53.2962 33.1234 102.11 26.15 40.3457 37.8553 114.064 25.901 76.9558 29.3876 28.1424 28.6405 32.6253 29.6367 85.4234 25.1538 70.4805
internal_count=7000 4980 3314 2851 2020 1660 463 1269 548 1666 1191 456 843 641 1369 735 1231 751 925 297 184 682 203 479 272 381 202 313 579 319 212 1112 526 197 728 314 414 426 460 167 156 159 296 156 138 296 138 322 150 420 249 193 129 306 155 130 264 151 247 299 128 289 229 103 194 367 124 243 114 141 166 106 193 209 586 128 193 159 103 159 103 117 176 110 214 133 410 105 162 152 458 104 309 118 113 115 131 119 343 101 283
shrinkage=1


Tree=1
num_leaves=102
num_cat=0
split_feature=25 26 27 5 22 24 5 25 25 27 24 24 25 26 27 3 26 25 25 27 25 25 26 26 17 21 1 25 22 22 5 22 9 14 4 3 0 9 26 26 5 13 4 11 1 21 23 6 23 3 13 19 21 9 0 19 18 5 26 3 4 25 27 25 25 19 21 13 27 18 0 18 11 4 24 7 25 3 9 14 9 27 4 6 22 26 18 15 0 3 5 9 27 3 18 25 2 24 0 3 26
split_gain=220.634 126.534 148.167 47.0449 44.4643 70.3843 31.0509 29.5919 29.6098 26.4213 29.8893 20.0884 16.68 15.4036 18.9939 14.8452 14.0929 12.9592 14.7457 12.7859 14.9376 12.7721 12.3332 11.8358 11.773 13.1274 11.5806 11.3239 11.0763 11.7315 10.7664 10.6585 10.5451 10.4364 10.3592 10.1738 10.061 9.55011 9.17025 8.96887 8.89583 8.85831 8.80644 8.68427 8.53872 8.51911 9.18469 8.48819 8.44599 8.17832 10.8251 8.07947 7.63165 7.50802 7.47548 7.27661 7.13844 7.10111 6.9028 6.88527 7.42399 6.71346 9.92133 6.70581 6.58607 6.53907 6.52994 6.49201 6.40962 6.0877 6.53502 5.97842 5.94757 5.5518 5.52245 5.40346 5.32932 4.87673 4.82893 4.55783 4.43353 3.8265 3.71265 3.41215 3.40085 3.75407 3.23453 3.18623 3.17211 2.96723 2.59409 2.47654 2.24725 2.0495 1.69413 1.46696 1.44146 1.17313 0.803372 0.488542 0.252127
threshold=1.2450000000000003 0.81150000000000022 0.90450000000000019 0.88150000000000006 1.0485000000000002 1.0795000000000001 1.3505000000000003 0.98950000000000016 0.51650000000000007 0.89550000000000007 1.2485000000000002 0.73550000000000015 0.64950000000000008 0.89850000000000019 0.82250000000000012 1.8135000000000001 0.72850000000000004 0.6905 1.0115000000000001 0.83850000000000013 0.94550000000000012 0.62350000000000005 0.72850000000000004 0.95650000000000002 0.61350000000000005 0.85550000000000004 0.89550000000000007 0.98950000000000016 0.94650000000000001 0.87650000000000017 0.47150000000000003 1.0445000000000002 1.1035000000000001 -0.015499999999999998 1.3285000000000002 0.63950000000000007 1.6975000000000002 0.76650000000000007 0.77250000000000008 1.3345000000000002 0.80850000000000011 0.84050000000000014 0.39550000000000007 -1.0064999999999997 -0.45449999999999996 1.5230000000000004 0.98850000000000005 -0.54649999999999987 1.0295000000000003 1.3015000000000001 0.95650000000000002 0.48250000000000004 1.0035000000000001 0.86250000000000016 0.90750000000000008 -0.44799999999999995 0.32450000000000007 0.62550000000000006 0.99050000000000005 0.96550000000000014 -0.26349999999999996 1.4095000000000002 1.4410000000000001 0.76450000000000007 1.8125000000000002 -0.44799999999999995 1.0095000000000003 0.71150000000000013 1.0855000000000004 -0.11949999999999998 0.90750000000000008 -0.15449999999999997 -0.22649999999999998 0.50350000000000017 0.84050000000000014 -0.23649999999999996 0.71650000000000003 1.2425000000000004 0.91850000000000021 -0.46599999999999997 1.6235000000000002 1.2005000000000001 0.08900000000000001 -0.28749999999999992 0.90050000000000019 0.87150000000000005 0.66300000000000014 -0.019999999999999997 0.94850000000000001 0.57250000000000012 1.0575000000000003 0.72550000000000014 0.85950000000000004 0.82550000000000001 0.79950000000000021 0.76850000000000007 0.46050000000000008 0.98550000000000015 0.54350000000000021 0.66550000000000009 1.4725000000000004
decision_type=2 2 2 2 2 2 2 2 2 2 2 2 2 2 2 2 2 2 2 2 2 2 2 2 2 2 2 2 2 2 2 2 2 2 2 2 2 2 2 2 2 2 2 2 2 2 2 2 2 2 2 2 2 2 2 2 2 2 2 2 2 2 2 2 2 2 2 2 2 2 2 2 2 2 2 2 2 2 2 2 2 2 2 2 2 2 2 2 2 2 2 2 2 2 2 2 2 2 2 2 2
left_child=1 6 3 7 5 36 11 8 -3 28 31 22 65 14 30 43 48 47 84 20 38 82 24 33 25 -1 54 40 29 41 -10 68 34 -9 37 95 49 81 55 90 51 -2 66 -12 -30 80 -47 -5 59 50 71 -23 63 -32 57 -18 78 -26 -20 60 -13 -45 64 -15 -63 -6 -39 -49 77 -42 -71 -4 -59 -51 -46 -41 -37 89 -29 -40 83 88 -7 -34 85 -19 -65 -8 -14 -11 -33 -62 96 -91 98 -24 -87 100 -86 -100 -70
right_child=9 2 4 17 12 21 87 23 13 10 15 16 32 52 -16 -17 19 18 58 -21 -22 27 35 -25 26 -27 -28 56 44 -31 53 39 45 -35 -36 76 -38 42 79 75 69 -43 -44 61 74 46 -48 67 -50 73 -52 -53 -54 -55 -56 -57 -58 72 -60 -61 91 62 -64 86 -66 -67 -68 -69 97 70 -72 -73 -74 -75 -76 -77 -78 -79 -80 -81 -82 -83 -84 -85 94 92 -88 -89 -90 93 -92 -93 -94 -95 -96 -97 -98 -99 99 -101 -102
leaf_value=-0.24424494380661541 -0.1457172011726541 -0.097823811104065794 -0.086550184465333482 0.25714982053970503 0.041011485616868154 -0.029356640170984383 0.085708924118752139 0.0052597924769798056 -0.029336487842983202 -0.19289711288064593 0.070018304889735136 -0.060001003324989546 0.12215479541051949 0.1301954089515949 -0.073292931229769875 -0.25876003737096664 0.037698856634133623 0.16455420674355214 0.053307823462520471 -0.2104754954349172 -0.2066367354298585 -0.077085366679544617 0.19934076184688573 0.10866630297871763 -0.14646806964551784 -0.010844505638836023 -0.16763837600839229 -0.042145800036817012 0.15907880920094303 -0.22968939748465128 0.11654636552539721 -0.13194235155180772 0.084554334792041524 -0.20634161142503241 -0.12576180484776708 0.06260088427847936 -0.31541096674242897 0.061696900554528061 -0.018455706131800417 -0.13793950396971408 0.059009783293144137 0.089856090045091527 0.15664515388578523 0.024563414869332514 -0.12952236418409402 0.20811225489411261 -0.0045929585248516225 -0.03558392013525561 -0.07428570014803465 -0.30397788197452891 -0.0015259637068561315 0.13136566567258628 0.06989438008800096 0.24449599058298477 0.1142607042667291 -0.14762898244362763 -0.12351114533287706 0.1302390355978324 0.22478887686177812 -0.30659823289027127 -0.1726985507144484 -0.10222872226850527 0.024732046136248288 0.23580652818198874 -0.27783952853078558 -0.12646209804517333 -0.1111091330775323 0.14333626625820969 -0.36339690404086017 0.29149368121007563 0.10733545349425987 -0.27102438264772422 -0.064788985308871935 -0.13397641005645414 0.038739103982734745 -0.30261206827504528 -0.1168808612022164 -0.12529880715545347 0.12143305097413118 0.12258692196405684 0.30357378196685431 0.052314582991662945 -0.1738293985426026 0.22896086820173933 0.26237653734853977 0.309288730764955 0.33693024803989147 0.22973159053735492 0.2614020465451119 -0.35794389020376355 -0.0032703455755395887 -0.29895647999542896 0.1873028500342917 -0.2482140761401789 0.22570896070262936 0.10183185888807539 0.23188139544721925 -0.27667754005174466 0.29365710729434064 0.33296621281240218 -0.32570495480611872
leaf_weight=23.362434729933739 12.657183319330217 21.609735608100891 12.617152631282808 12.579408243298529 15.882884323596953 14.886597514152529 12.288052678108217 18.158097460865974 12.95234854519367 17.847513273358345 18.123641386628151 15.655854508280752 14.017195358872415 17.788799852132797 20.715051740407944 16.756797567009926 14.159151837229727 22.391468971967697 22.390290945768356 21.364515423774719 17.161571711301804 17.771995514631275 12.335191562771799 14.665599405765532 13.45093823969364 16.409446150064468 15.669367298483847 15.370322927832605 12.947799399495123 20.618654683232307 45.736859545111656 12.669306725263597 12.300142914056778 19.162607818841934 12.359530866146086 13.119016468524935 20.527604907751083 14.968005955219267 14.974749580025671 14.594813048839567 19.329378306865692 12.884720548987387 12.31351464986801 16.130120322108269 13.679236993193628 12.810499012470244 22.178691491484642 14.580009236931799 22.609876811504364 19.633259072899818 21.594690501689911 12.790498018264769 12.835043072700499 30.629863932728767 23.305442675948143 21.107276320457458 18.820494920015335 12.638836145400999 16.171526774764061 22.131049707531929 12.428599178791048 19.122205600142479 12.921939939260481 36.058030322194099 15.43999409675598 22.589057773351669 21.044749736785889 18.285119473934174 16.787939071655277 15.887317821383478 14.970683470368384 15.860592320561407 12.382525756955149 12.625275596976278 18.160693049430847 17.561082005500793 13.352887183427809 15.135701477527617 13.611092060804365 23.620875015854836 13.166737139225004 12.381457835435866 13.628734186291693 13.988609537482262 13.681391507387159 28.603101193904877 19.491353362798691 12.289334401488302 12.273878172039984 12.383055984973909 12.402534350752829 12.428318351507185 12.625127226114271 15.12468847632408 12.68527978658676 12.350804358720778 14.501274511218069 13.81466284394264 21.464481249451637 30.784662678837776 12.299609810113905
leaf_count=94 51 87 51 51 64 60 50 73 53 72 73 63 57 73 84 68 57 92 91 86 69 72 50 59 54 66 63 62 52 83 188 51 50 77 50 53 83 61 61 59 79 52 50 65 55 52 90 59 91 79 87 52 52 126 94 85 76 51 66 89 50 77 52 150 62 91 85 74 68 65 61 64 50 51 73 71 54 61 55 96 54 50 55 57 57 120 81 50 50 50 50 50 53 61 53 50 61 56 90 129 50
internal_value=0 0.0364041 0.0746766 0.149361 -0.0060728 -0.061535 -0.0598901 0.0920127 0.124371 -0.141463 -0.174016 -0.0745025 0.0618394 0.148843 0.0992519 -0.0872726 -0.117749 0.213632 0.236016 -0.0712347 -0.038553 0.0226861 -0.0237392 -0.0435668 -0.0594982 -0.147946 -0.0140768 0.0495468 -0.04872 -0.11747 0.139269 -0.227208 0.0882162 -0.103389 0.0455737 0.0581958 -0.190142 0.0699146 0.000500648 -0.157958 0.0952179 -0.0268813 0.0106374 -0.0521165 0.0221374 0.145129 0.0732842 0.117438 -0.179068 -0.158909 -0.108315 0.010152 0.212166 0.167866 0.0248727 -0.0732215 -0.0276035 -0.029276 0.125221 -0.216887 -0.16788 -0.0869126 -0.12478 0.237066 -0.180679 -0.0573217 -0.0392856 0.0639616 -0.265537 0.14702 0.20215 -0.189293 0.0337239 -0.237443 -0.0335503 -0.227871 -0.0279328 -0.223601 0.0346788 0.0678637 0.208842 0.143989 -0.0984065 0.161395 0.263275 0.233721 0.271289 0.157724 0.187162 -0.256405 -0.0682909 -0.235827 0.261512 -0.297611 0.292642 0.150555 0.283247 -0.324667 0.30552 0.316818 -0.347459
internal_weight=0 1373.34 982.747 510.547 472.201 259.926 390.596 269.803 217.817 350.064 259.116 366.019 212.275 196.207 110.034 98.4947 197.642 240.743 195.299 112.388 91.0236 157.067 168.377 51.9863 117.219 39.7719 77.4471 128.552 90.9483 46.1606 89.3191 160.621 173.803 37.3207 99.3583 51.1579 102.859 86.9988 73.8621 57.2277 80.7499 25.5419 48.3263 81.7379 44.7877 74.4447 34.9892 45.4445 85.2537 82.331 50.0724 30.5625 86.1732 76.3667 61.7777 35.2664 47.8019 38.4723 38.5618 62.6438 40.5128 63.6143 47.4841 73.3382 34.5622 38.4719 36.0128 32.8651 103.393 50.1874 30.858 28.4777 25.0214 32.2585 31.8399 32.1559 26.4719 60.491 28.9814 38.5956 39.4555 38.6725 28.5153 26.2888 156.737 78.121 55.5494 24.5774 26.2911 45.3553 25.0718 24.8569 55.7295 27.5077 78.6158 24.686 43.1044 42.9022 65.9305 52.2491 29.0875
internal_count=7000 5588 4012 2099 1913 1052 1576 1103 894 1412 1046 1476 861 807 451 397 797 996 812 454 368 637 679 209 472 160 312 522 366 186 367 649 706 150 403 207 415 353 299 231 329 103 196 329 180 303 142 184 343 332 202 124 356 314 249 142 193 155 157 252 163 256 191 304 139 155 146 133 418 205 126 115 101 130 128 130 107 244 117 157 161 157 115 107 655 326 231 100 107 183 101 100 234 111 329 100 181 174 276 219 118
shrinkage=0.2


Tree=2
num_leaves=92
num_cat=0
split_feature=25 25 26 27 5 25 26 25 22 27 5 27 3 13 9 27 5 5 0 22 19 5 25 26 25 3 24 0 26 18 5 25 9 24 22 18 24 18 5 24 24 27 25 24 21 22 21 25 18 18 14 9 21 9 24 7 14 2 4 13 22 24 25 24 26 24 24 15 8 10 2 24 18 14 27 3 3 13 24 6 4 18 27 21 21 21 2 9 17 1 11
split_gain=147.14 108.726 71.4826 61.4747 32.6028 28.7027 22.5765 22.7828 22.2154 18.9839 17.9951 20.7588 17.9933 16.6185 16.4663 15.6503 19.3067 13.9533 24.5123 13.3124 12.2437 11.7274 11.6578 11.5113 11.391 11.0739 10.8358 13.9899 9.95592 8.98986 8.61824 10.4134 8.57539 8.1134 11.6621 9.03168 8.10434 7.89479 7.69637 7.26946 7.47049 7.45769 7.20347 7.78076 7.1832 7.03031 8.30199 13.4695 7.08518 7.87219 6.90205 6.90129 7.20267 8.12441 6.44562 6.78706 6.39047 6.38628 6.15681 6.53206 6.02458 5.72907 6.2048 5.49369 5.37204 5.34012 5.2132 5.20542 5.08517 5.04593 4.95408 4.88034 4.80572 4.74858 4.65878 4.58966 4.22734 4.16225 4.13729 4.72092 4.1182 4.09382 3.59362 3.54546 3.47172 2.95846 2.80174 2.63658 2.56122 2.4886 1.76884
threshold=1.0675000000000001 0.62350000000000005 0.77650000000000008 0.90450000000000019 0.85250000000000015 1.5585000000000002 0.86550000000000005 0.94550000000000012 1.0265000000000002 0.79950000000000021 1.5755000000000001 0.85250000000000015 2.0310000000000001 0.9405 1.3175000000000001 1.0025000000000002 1.1885000000000001 0.81250000000000011 1.7985000000000002 1.1175000000000004 0.75350000000000017 1.0525000000000002 0.67850000000000021 0.67450000000000021 0.52350000000000019 1.8335000000000001 0.72150000000000014 0.85050000000000014 0.74950000000000017 0.24350000000000002 1.3955000000000002 0.99250000000000005 0.69950000000000012 1.0265000000000002 1.0265000000000002 0.012500000000000002 0.97750000000000015 -0.28349999999999992 0.48950000000000005 0.71050000000000002 0.79950000000000021 0.82850000000000013 0.94150000000000011 0.71450000000000002 0.60350000000000004 1.1235000000000002 0.75250000000000006 1.8760000000000001 -0.9365 0.73450000000000004 0.35250000000000004 1.2545000000000002 1.0925000000000002 0.75850000000000006 1.2355000000000003 0.11250000000000002 1.4460000000000002 -0.08699999999999998 0.67450000000000021 0.72150000000000014 1.4325000000000003 0.98050000000000004 0.9275000000000001 0.80850000000000011 1.1785000000000003 0.84050000000000014 0.88550000000000006 -0.36299999999999993 1.0000000180025095e-35 0.12450000000000001 0.19450000000000003 1.1635000000000002 -0.23349999999999999 0.7360000000000001 1.1895000000000002 0.71050000000000002 0.91150000000000009 0.84950000000000003 0.94450000000000001 0.64650000000000019 0.18550000000000003 0.025500000000000005 0.9165000000000002 1.2535000000000001 0.96250000000000002 0.93050000000000022 0.49150000000000005 0.70250000000000001 0.89350000000000007 -0.061999999999999993 -0.58649999999999991
decision_type=2 2 2 2 2 2 2 2 2 2 2 2 2 2 2 2 2 2 2 2 2 2 2 2 2 2 2 2 2 2 2 2 2 2 2 2 2 2 2 2 2 2 2 2 2 2 2 2 2 2 2 2 2 2 2 2 2 2 2 2 2 2 2 2 2 2 2 2 2 2 2 2 2 2 2 2 2 2 2 2 2 2 2 2 2 2 2 2 2 2 2
left_child=1 10 4 6 42 8 7 9 15 66 11 13 14 20 17 16 36 33 30 29 21 26 -8 -22 63 45 32 -28 -29 71 31 -19 70 34 -5 -35 39 -6 -24 -2 -41 89 43 80 -40 46 47 -7 -47 -50 -11 52 53 -10 90 -56 83 -21 59 -38 -53 -16 64 -15 -63 -9 77 -68 -31 -54 -1 84 -69 75 -14 -45 -55 87 82 86 -3 -25 -48 -46 -13 -20 88 -4 -80 -42 -17
right_child=5 2 3 12 37 25 22 65 51 50 -12 19 74 24 61 54 -18 18 85 57 23 -23 38 81 -26 -27 27 28 -30 68 -32 -33 -34 35 -36 -37 58 -39 44 40 41 -43 -44 73 56 48 78 -49 49 -51 -52 60 69 76 55 -57 -58 -59 -60 -61 -62 62 -64 -65 -66 -67 67 72 -70 -71 -72 -73 -74 -75 -76 -77 -78 -79 79 -81 -82 -83 -84 -85 -86 -87 -88 -89 -90 -91 -92
leaf_value=-0.13774104241913956 -0.0026160992856040181 -0.083503011768950627 0.32338256981380797 -0.23903168557298585 -0.013087752868339814 0.057131731096180395 0.023346482354080482 0.0059421153464048818 0.048261450631603933 -0.10194024053362655 0.11383839508679548 -0.3276268926570059 -0.032752428881700511 -0.064781794588608402 0.051864000588491221 -0.30109560435691923 0.10482096131644213 0.11238656298836225 -0.18514182431561399 -0.12419507583333796 -0.27423168509432666 0.14735416102543195 0.06627919672604364 -0.14675369725316201 0.18316492411981455 -0.31403745179810483 -0.24199185793896416 -0.15253484329388828 0.071814819936360283 -0.16225665291103492 0.23481672487833621 -0.055220435456217458 0.13517118998715247 0.095251041976243123 -0.00014616059538844067 -0.079545015320712176 -0.18569696468013963 0.17908109649437895 0.095458346550575945 -0.27509435552121042 -0.10809446207161205 -0.20870907388414703 -0.2619980664327774 -0.10599922326796835 0.2341066985598188 -0.19484008613593445 -0.1690748070700363 -0.22170045931414731 0.03931829597281198 -0.15185310233037652 0.096073295756236562 0.16762094030182562 0.13462429605200804 -0.058608334920366045 -0.20624433596334424 -0.0076271164595165912 0.088777705207334634 0.064228393012625049 0.094725577488195684 -0.0048497984899185907 -0.011699161406289628 0.33388151322321302 0.0742728893892287 0.096955767457932995 0.15802511514449677 -0.17929119308219543 0.012872171168581595 0.081082914769694231 -0.0041729619930662631 -0.030226532862915313 0.039768277525161294 -0.13159936353949028 0.25946565128519977 -0.04253738499867981 -0.19199772634107759 -0.24241646469047762 -0.2163477297877178 0.14416780806893642 -0.22105464488191681 -0.052448789921453014 0.062773741978533457 0.0052787458886176817 -0.29981987108348745 0.12324304019178184 -0.19428879906098248 -0.047362823166142459 -0.26948927128448885 0.20595474734428218 -0.09185360912162939 0.019082559259416813 -0.20375604176771278
leaf_weight=12.818784743547441 14.337371379137037 17.329108983278278 13.377160236239435 16.334198087453842 13.99499264359474 14.91051207482815 16.404536947607994 12.62035843729973 15.809671506285666 16.450042918324474 23.091865330934525 21.257465243339539 14.24442018568516 22.927820116281509 20.064731776714325 12.356593251228334 24.320456057786942 75.04509624838829 12.529671251773836 13.382281735539438 18.468503177165985 13.251657560467718 16.709836885333061 14.275794938206674 19.800332993268967 15.93363034725189 20.693194672465324 14.583134919404985 17.296036273241043 22.387882456183434 16.809014141559601 18.478563323616982 16.412115275859833 24.262407168745995 16.363398417830467 23.064009219408035 12.333133190870283 21.984576269984245 21.083143875002861 16.661022558808327 12.292169332504272 20.055393904447556 12.248058930039404 18.362914219498634 185.39047394692898 14.904411017894743 13.560308322310446 12.94737361371517 23.264193698763847 13.684093996882437 12.310647785663603 19.403541624546055 16.773477658629421 14.630676224827768 14.135556757450106 13.411083340644835 14.304712548851965 15.562389746308325 12.548410803079603 22.68017415702343 12.210246279835699 12.490260675549509 14.300190910696982 13.25798264145851 15.660180091857908 12.286044746637343 13.58851048350334 12.459686502814293 12.788947910070418 13.329046860337256 12.346042230725287 12.34749600291252 11.72673425078392 13.651673302054403 15.179286345839499 21.317505091428757 12.690677046775816 23.023982420563698 12.1283205896616 12.133853495121 13.853105768561361 14.06426817178726 22.135434597730637 12.304434448480604 12.34793473780155 12.40656593441963 13.358833432197569 17.858596533536911 12.424339592456816 12.326146975159645 18.87270587682724
leaf_count=52 58 70 56 67 57 61 67 51 64 67 95 87 58 93 83 52 99 311 52 54 75 54 71 58 81 69 84 59 70 91 70 76 67 99 67 94 50 90 93 68 50 82 50 75 823 61 55 54 95 56 50 80 68 59 57 54 63 63 51 92 50 52 60 54 66 50 57 52 52 54 50 50 50 55 62 87 51 98 50 50 56 57 94 52 50 51 55 76 51 50 80
internal_value=0 0.0383372 0.0766336 0.101525 -0.0582137 -0.0915596 0.152027 0.0887374 -0.0546995 0.124649 -0.0566755 -0.0689698 0.0338172 -0.0321227 0.0495689 -0.0927929 -0.0580286 0.0233307 0.0624928 -0.139332 -0.066007 -0.028803 0.186668 -0.15137 0.0612091 -0.154796 -0.0535974 -0.113936 -0.030814 -0.180876 0.102968 0.0792705 0.022699 -0.042867 -0.119482 0.0100661 -0.0901674 0.104333 0.197394 -0.130829 -0.1608 -0.118173 -0.118654 -0.0978804 0.206794 -0.13946 -0.167313 -0.0724597 -0.0784384 -0.0314836 -0.0171831 0.020265 -0.0134481 -0.0658478 -0.180067 -0.109548 0.217866 -0.0228873 -0.0254735 -0.0685516 0.0983618 0.139929 0.181554 -0.00552337 0.236052 -0.0854314 0.168971 0.111923 -0.104783 0.0616303 -0.0506537 -0.239125 0.167571 -0.144282 -0.114905 -0.179287 -0.131878 0.208687 -0.198132 -0.161028 -0.0185177 -0.0713049 -0.250152 0.227207 -0.278633 -0.116592 -0.19578 0.256245 -0.155675 -0.0444182 -0.242271
internal_weight=0 1195.23 851.873 719.131 132.742 492.563 411.899 145.702 311.178 120.795 343.362 320.27 307.232 210.196 277.808 206.33 147.554 215.293 135.269 110.074 154.21 107.401 266.197 46.8086 55.9861 181.385 94.1493 52.5724 31.8792 81.1297 110.333 93.5237 41.5769 80.024 32.6976 47.3264 123.234 35.9796 249.793 75.6721 61.3347 44.6737 96.7624 84.5143 233.083 165.452 113.599 27.8579 51.8527 36.9483 28.7607 104.847 73.2335 43.131 58.7759 27.5466 212 28.9447 47.5617 35.0133 31.6138 62.5154 42.4506 36.1858 28.1504 24.9064 92.0347 37.7749 35.1768 30.1025 25.1648 45.9529 24.1864 53.3321 29.4237 39.6804 27.3214 54.2597 85.7411 50.0453 31.1822 28.3401 35.6957 197.695 33.6054 24.9362 37.9115 31.2358 24.5527 24.6183 31.2293
internal_count=7000 4980 3584 3044 540 2020 1776 607 1269 506 1396 1301 1268 854 1148 843 600 887 560 447 626 436 1169 190 228 751 382 213 129 330 457 387 169 327 134 193 501 147 1102 308 250 182 393 343 1031 682 470 115 212 151 117 426 296 174 243 111 938 117 193 142 130 261 178 147 118 101 389 159 143 122 102 187 102 217 120 162 110 230 355 206 126 115 149 875 137 103 156 132 101 100 132
shrinkage=0.2


Tree=3
num_leaves=99
num_cat=0
split_feature=25 26 27 5 22 24 25 5 27 24 26 22 27 25 25 24 13 25 24 26 27 25 3 25 0 5 13 17 10 13 1 9 24 27 26 21 25 9 3 0 18 2 13 5 25 25 17 21 27 25 17 14 0 0 25 21 25 22 14 21 9 21 23 9 0 13 1 9 2 0 22 17 5 22 21 21 4 24 13 4 25 24 5 24 0 2 9 22 22 22 2 27 1 1 21 17 21 7
split_gain=100.794 58.7181 74.8187 31.0615 23.1376 38.0138 15.9985 15.3925 14.6588 18.7685 12.2462 10.6692 10.5723 14.6356 10.4763 10.1956 11.285 10.0334 9.4057 9.24125 8.92062 8.96334 8.74447 8.44148 8.40361 8.25863 8.44308 8.41511 8.1684 9.42138 7.83452 7.76651 7.71605 10.7635 12.0906 9.51549 7.58932 7.51444 7.33794 7.33246 7.28476 7.41261 7.23622 7.56921 11.5974 9.9073 7.1838 7.04613 6.94214 8.66326 6.90926 6.80359 6.76979 6.26569 6.263 7.45231 6.14813 6.14631 6.35118 6.10629 6.00183 5.91674 5.8291 6.11045 6.64736 5.80709 5.70966 5.51258 5.31371 5.84958 5.3127 5.3018 5.22301 5.11592 4.93503 11.7916 4.86942 4.59331 4.28101 4.26954 3.57191 3.35347 3.32768 3.1802 3.17799 2.43092 2.65296 2.6195 2.28775 2.3918 3.57099 1.96756 1.76541 2.43262 1.77607 1.66515 1.44717 0.253152
threshold=1.2815000000000001 0.81150000000000022 0.90650000000000019 0.88150000000000006 1.0485000000000002 1.0185000000000002 1.0975000000000004 1.3505000000000003 0.89550000000000007 1.2435000000000003 0.86950000000000005 0.74450000000000005 0.7965000000000001 0.77550000000000019 0.46200000000000008 0.71850000000000003 1.3685000000000003 0.67850000000000021 0.73250000000000004 0.92050000000000021 1.0105000000000002 1.0115000000000001 1.2635000000000003 0.62350000000000005 1.2935000000000001 1.3365000000000002 1.4815000000000003 1.0295000000000003 0.62200000000000011 0.71650000000000003 -0.69249999999999978 0.84450000000000014 1.0335000000000003 0.77250000000000008 0.72850000000000004 0.92850000000000021 0.96550000000000014 0.68650000000000022 0.45550000000000007 0.51450000000000007 0.32450000000000007 0.025500000000000005 0.99250000000000005 1.0955000000000001 0.98950000000000016 0.75850000000000006 0.47350000000000003 1.3785000000000001 1.2475000000000003 0.98950000000000016 0.74050000000000005 0.42050000000000004 0.96850000000000003 0.52950000000000019 0.98450000000000004 1.0065000000000002 0.65950000000000009 0.7985000000000001 -0.63849999999999996 0.90150000000000008 0.77550000000000019 0.92450000000000021 1.0345000000000002 1.2615000000000001 1.1945000000000003 1.0475000000000001 0.40650000000000003 0.89250000000000018 -0.48249999999999993 0.73450000000000004 0.84350000000000003 0.83850000000000013 0.68950000000000011 0.97150000000000014 0.81850000000000012 0.94450000000000001 0.40650000000000003 1.1965000000000001 0.77350000000000019 -0.19149999999999998 0.71650000000000003 1.0755000000000001 0.73450000000000004 0.73950000000000016 0.8045000000000001 1.1795000000000002 1.1825000000000003 0.88350000000000006 0.75250000000000006 0.99450000000000005 -0.08699999999999998 0.79950000000000021 -0.88749999999999984 -0.15249999999999997 0.84950000000000003 0.85250000000000015 0.89250000000000018 1.0000000180025095e-35
decision_type=2 2 2 2 2 2 2 2 2 2 2 2 2 2 2 2 2 2 2 2 2 2 2 2 2 2 2 2 2 2 2 2 2 2 2 2 2 2 2 2 2 2 2 2 2 2 2 2 2 2 2 2 2 2 2 2 2 2 2 2 2 2 2 2 2 2 2 2 2 2 2 2 2 2 2 2 2 2 2 2 2 2 2 2 2 2 2 2 2 2 2 2 2 2 2 2 2 2
left_child=1 7 3 6 5 18 10 15 28 62 12 67 50 -14 -6 38 32 31 -4 -8 21 81 68 79 37 26 27 30 29 -2 -22 -12 33 34 53 78 56 -20 51 -40 41 -27 43 44 45 52 -41 -29 49 65 60 82 -5 -17 55 77 -36 -48 -59 -52 -3 -60 63 92 71 -25 -51 -7 -11 -70 -39 -65 -55 -64 -31 -76 -24 -19 -35 -13 -45 84 -1 -9 -16 86 96 -88 -82 90 -90 -47 -10 -94 -95 -93 -44 -98
right_child=8 2 4 42 14 11 19 83 9 22 17 23 13 -15 20 16 -18 54 24 -21 25 -23 76 48 -26 40 -28 47 -30 74 -32 -33 -34 35 36 -37 -38 70 39 46 -42 -43 85 80 -46 91 57 -49 -50 66 59 -53 -54 72 -56 -57 -58 58 61 -61 -62 -63 73 64 -66 -67 -68 -69 69 -71 -72 -73 -74 -75 75 -77 -78 -79 -80 -81 88 -83 -84 -85 -86 -87 87 -89 89 -91 -92 95 93 94 -96 -97 97 -99
leaf_value=0.053819578473775435 -0.11211170872360576 -0.08923973244307204 -0.019802670052739293 -0.057503884956796064 -0.11351110666710199 0.038873137320427263 -0.17506240140519563 0.18933202148229425 -0.30133966220601283 0.083003564052327783 -0.095843197418263068 -0.027847217737135829 0.040232134800846628 -0.24852211759022699 0.21026975372678619 -0.26587431744522932 0.091691957972952348 0.20173259061381912 -0.0072199414524642255 0.049855568425691166 0.14955638067234558 -0.016854221258301487 -0.18973573884889133 0.1284982105875134 -0.28862207191798744 -0.05435653468836197 0.12493270617742158 -0.021464281440373194 -0.14525380548051109 0.15412632025521245 -0.027158326634721744 0.11802188638946083 0.046722252896983653 -0.18325754718453616 -0.056793130093886403 -0.062878762181650921 -0.15358160773992591 -0.079746852702162987 -0.13994891080398483 -0.1399362032298464 0.22044414440911153 0.15431832316815708 0.21549413303914042 0.086168126169526682 -0.059481131033926431 0.25041342357521457 0.12495410446530542 -0.20449617867371706 -0.09141095361251414 0.019277895679697364 0.20942990962116734 -0.052371106155852491 0.14103727439066116 -0.14697377292839664 0.039924078658156573 0.022873581069178237 0.082702551882848363 0.08160140113555614 -0.1290786480839162 0.024992630497196643 0.1005411625484925 0.023492200985777891 -0.18138129415453341 -0.19472749458863747 -0.26723017071595739 -0.0012677778208418922 -0.14479375872923891 0.22378745238780381 0.044465476670473 -0.11897055690249177 -0.24193803571260239 -0.03685952053878648 -0.017620182370451352 -0.027792238480996052 -0.12608579308101006 0.13219226867324593 -0.042312735666651703 0.068997592614833791 -0.33204735747343272 -0.18873369349190178 0.2820458003224689 0.25889524402751485 0.20194047002338886 0.041810359150495052 0.073150861567516864 0.13304300407577352 0.10376577784833652 0.23183924894387942 0.061842279697606473 0.25025217865809546 0.22124506048621209 0.10627890290292788 -0.15076799756483727 -0.19503533547299545 -0.295138476089364 0.21286636353667757 0.3117886628213683 0.26889990722705465
leaf_weight=12.240389987826349 18.507481947541237 15.222915023565294 16.942353710532188 14.171276956796648 15.805719643831251 13.51408624649048 17.066119775176052 11.660392194986345 14.471791580319403 18.088669583201408 14.688044100999834 12.277578324079515 16.59322223067284 12.171389937400816 12.130701735615732 11.776460602879522 14.1797738969326 70.314729169011116 12.705358937382696 12.77818678319454 14.253755524754522 13.253408938646315 22.563768237829208 37.536420151591301 21.899575620889664 14.452757686376573 17.35725574195385 18.453377440571785 18.2759869992733 14.384446635842322 33.907409116625786 12.63479423522949 14.60581538081169 17.025010868906978 22.498086705803871 16.450915455818176 12.25885835289955 12.303693145513533 22.441344410181046 14.700375363230703 14.224496394395826 12.874817326664923 19.127808749675751 11.395282074809073 15.885926783084868 15.622115135192869 15.540241420269011 15.462779834866522 21.714255928993225 22.109341517090797 17.461679250001911 12.931441217660902 13.332850739359854 39.176953136920929 21.478725671768188 13.720898643136023 28.836984723806381 18.313914239406586 22.468652561306953 12.194754257798193 11.857634872198103 18.570250242948532 16.839445576071739 14.140415623784063 12.926809445023535 21.808657586574554 13.76680928468704 12.334644958376883 15.166984647512434 20.735438406467438 23.522831156849861 21.368062511086464 18.326959550380707 17.891961961984634 13.38803379237652 14.984155565500258 14.867043063044546 12.2442569732666 14.175227805972098 14.26217310130596 13.09622862935066 12.486478641629217 12.029134184122084 11.720783337950705 15.274395793676375 14.172219470143316 11.661048695445063 14.126356318593023 10.856240391731259 13.748350217938421 11.658602640032772 11.898252159357073 13.624295175075529 12.210017144680025 16.905935719609261 11.557723090052603 11.190507143735887 10.835066601634024
leaf_count=50 76 64 71 60 64 56 70 50 63 74 60 50 68 50 51 50 58 330 53 52 59 55 96 159 95 60 73 77 75 59 140 52 61 71 92 68 51 51 92 61 61 54 90 49 67 75 64 63 90 90 77 53 57 163 89 58 121 75 92 52 51 76 75 62 57 92 56 52 62 85 99 93 75 76 55 61 63 56 60 59 61 53 50 50 64 64 53 65 50 66 53 57 58 53 73 57 51 50
internal_value=0 0.024394 0.0509864 0.106014 -0.00617856 -0.0464534 0.0590261 -0.0418487 -0.101992 -0.127413 0.0768599 0.00883331 0.0168206 -0.0819507 0.043067 -0.0521018 -0.0805795 0.112243 -0.153595 -0.0787612 0.0558152 0.125644 -0.0568933 -0.0124759 -0.185779 0.029493 -0.00179824 -0.0285986 -0.0279078 0.0070982 0.0251421 0.0030536 -0.0930981 -0.104411 -0.0751654 -0.18596 -0.0121958 -0.139372 -0.0121603 -0.0377157 0.104373 0.0439563 0.160561 0.133529 0.0940652 0.1307 -0.0121083 -0.104911 0.0106355 0.0339062 0.0668958 0.0648023 0.0387406 -0.132966 0.137578 0.159363 0.0215672 0.0129824 -0.016335 0.133589 -0.00614125 -0.0600398 -0.17334 -0.196707 -0.144431 0.0808106 -0.0436816 0.127112 -0.00539117 -0.049927 -0.186238 -0.0997267 -0.105748 -0.10226 0.058699 0.0103182 -0.131181 0.182047 -0.250857 -0.114306 0.187096 0.172988 0.127235 0.115381 0.133846 0.208291 0.224222 0.173925 0.210397 0.184521 0.144384 0.195423 -0.240963 -0.22052 -0.253159 0.158799 0.25574 0.29069
internal_weight=0 1333.33 951.398 484.763 466.635 256.698 260.427 381.928 311.341 231.801 230.583 169.324 85.5016 28.7646 209.937 358.547 209.311 145.081 87.3738 29.8443 194.132 53.145 91.4219 143.475 70.4315 140.987 99.4346 82.0773 79.5401 61.2641 48.1612 27.3228 195.131 180.525 132.874 47.6512 63.5939 48.5319 149.236 112.035 41.5521 27.3276 224.336 143.223 82.4681 66.5822 89.5934 33.9162 116.935 95.2212 56.737 37.201 27.5041 69.2804 117.759 96.2799 51.3351 74.8931 59.3528 29.6564 27.0805 41.0389 140.379 105.647 48.4353 59.3451 35.8762 25.8487 53.9911 35.9024 35.8265 35.5085 57.5039 34.7314 42.7566 28.3722 37.4308 82.559 31.2002 26.5398 60.7547 39.8916 24.2695 23.3812 27.4051 81.113 66.9408 25.7874 49.3594 36.2632 22.5148 39.0781 57.212 42.7402 29.116 23.456 41.1534 22.0256
internal_count=7000 5684 4101 2154 1947 1073 1129 1583 1316 990 1007 704 362 118 874 1483 870 645 369 122 810 223 380 596 298 587 412 339 326 251 199 112 812 751 552 199 264 203 613 460 175 114 1025 652 373 306 368 140 487 397 244 153 117 288 533 444 213 307 243 129 115 168 610 459 212 251 146 108 221 147 150 155 238 151 175 116 159 386 131 109 279 168 100 100 115 373 309 118 230 169 103 189 247 184 126 114 191 101
shrinkage=0.2


Tree=4
num_leaves=94
num_cat=0
split_feature=25 25 5 27 25 26 0 27 3 9 3 5 25 23 13 1 22 25 5 10 25 3 21 25 10 9 22 26 27 6 0 26 5 27 21 2 9 18 1 4 21 22 27 18 1 21 14 21 19 19 24 9 9 5 15 24 24 26 25 27 10 7 9 22 24 7 11 6 11 3 8 16 26 23 22 24 13 14 5 24 24 16 0 0 22 13 10 11 24 4 27 23 11
split_gain=67.4878 43.1985 35.6675 36.1842 23.1437 29.9928 21.9487 15.8154 13.2666 12.6471 12.4364 12.4327 12.3001 14.9294 10.6192 10.2859 9.89267 9.27674 10.6595 8.72344 8.65869 8.59861 8.4316 8.26816 7.90078 7.57925 7.26429 7.10305 8.69348 7.02297 6.97233 6.94257 6.91377 7.77853 7.67056 6.90749 6.79964 10.1121 9.0596 7.36586 8.61452 6.78515 7.37745 7.95122 6.71474 6.54919 9.75494 6.33149 6.298 6.26061 7.719 6.68794 6.16382 6.12944 6.06214 5.81108 5.74426 5.66923 6.37999 5.59829 5.7539 5.87299 5.74343 5.44343 9.0728 6.07654 5.42518 5.39217 7.56448 5.12856 5.06607 5.05793 6.56813 4.96458 4.84307 4.63812 4.63071 4.6284 4.14455 4.10058 3.88161 3.74914 3.51669 3.25259 2.59851 2.5324 1.95758 1.83782 1.65727 1.46123 1.32427 0.909198 0.680595
threshold=1.2815000000000001 0.59250000000000014 0.88150000000000006 0.90450000000000019 0.96550000000000014 0.76750000000000018 1.7460000000000002 0.82250000000000012 1.7675000000000003 1.0415000000000003 1.8335000000000001 1.7625000000000002 0.86450000000000016 1.1595000000000002 0.9405 -1.0194999999999996 0.99250000000000005 2.1950000000000007 1.7360000000000004 -1.3164999999999998 1.0115000000000001 1.1225000000000003 0.58250000000000013 1.0455000000000003 1.1305000000000003 1.0615000000000003 0.72750000000000015 0.88650000000000018 0.90650000000000019 0.43650000000000005 1.0375000000000003 0.99050000000000005 1.3505000000000003 0.91350000000000009 0.82250000000000012 0.34950000000000003 1.0065000000000002 0.52850000000000008 -0.24249999999999997 1.0000000180025095e-35 0.82450000000000012 1.0305000000000002 1.0855000000000004 0.65250000000000019 -0.26249999999999996 1.1925000000000001 0.70750000000000013 0.84350000000000003 -0.42199999999999993 -1.1844999999999997 0.86750000000000005 0.68650000000000022 0.68950000000000011 0.59850000000000014 1.0000000180025095e-35 1.2895000000000001 1.0755000000000001 0.87950000000000006 0.79550000000000021 0.81250000000000011 -0.13549999999999998 0.076500000000000012 1.0245000000000002 0.81650000000000011 0.83550000000000002 0.79550000000000021 0.95050000000000001 -0.35149999999999992 0.019500000000000003 0.43450000000000005 1.6300000000000001 1.0000000180025095e-35 0.68250000000000022 0.99150000000000016 0.97550000000000014 1.1915000000000002 1.3085000000000002 0.024500000000000004 0.96250000000000002 0.84550000000000003 0.78850000000000009 1.0000000180025095e-35 0.93750000000000011 0.84150000000000003 0.94750000000000012 0.62650000000000017 -1.1604999999999996 0.28550000000000003 1.3385000000000002 -0.16449999999999998 0.87450000000000017 0.99150000000000016 1.1295000000000002
decision_type=2 2 2 2 2 2 2 2 2 2 2 2 2 2 2 2 2 2 2 2 2 2 2 2 2 2 2 2 2 2 2 2 2 2 2 2 2 2 2 2 2 2 2 2 2 2 2 2 2 2 2 2 2 2 2 2 2 2 2 2 2 2 2 2 2 2 2 2 2 2 2 2 2 2 2 2 2 2 2 2 2 2 2 2 2 2 2 2 2 2 2 2 2
left_child=1 14 4 20 5 16 8 25 11 27 17 15 13 45 26 77 30 18 22 -17 57 81 -2 -21 41 49 85 66 47 91 71 70 33 34 -16 87 39 38 -38 63 -41 42 43 69 -42 46 -9 -29 -19 -7 51 -51 -30 -52 -46 -50 -8 59 79 60 61 -4 84 -28 65 -65 80 83 -69 -24 -22 72 -3 -66 -23 -44 82 -5 -35 -59 -6 -14 -36 -43 -62 -1 -60 -10 -12 -27 92 -11 -88
right_child=10 2 3 6 9 7 56 12 35 29 88 -13 21 -15 32 19 -18 48 -20 23 31 74 24 -25 -26 89 36 28 52 -31 -32 -33 -34 78 76 -37 37 -39 -40 40 44 67 75 -45 54 -47 -48 -49 55 50 53 -53 -54 -55 -56 -57 -58 58 86 -61 62 -63 -64 64 73 -67 -68 68 -70 -71 -72 -73 -74 -75 -76 -77 -78 -79 -80 -81 -82 -83 -84 -85 -86 -87 90 -89 -90 -91 -92 -93 -94
leaf_value=0.079685171009174563 0.050954059940104247 0.10033424839834271 0.0035830692934788501 0.019964500164490809 -0.11853177987265776 0.20151317575324459 -0.19376369872104623 -0.069201914833376107 0.06738099421735623 -0.063270745149882623 -0.27894617968729468 0.22443131884310069 0.098913188984920242 0.1563104929214798 -0.11120147569730465 -0.070602412728702477 0.04069152630802092 -0.28040175570937015 0.10799497599297099 0.14126942757504649 0.076842353163220356 -0.088068944862464651 0.016432138230098588 0.0137424232219585 -0.19355831063224493 0.27493573971842145 0.056420121687517005 -0.060956232478057315 -0.017440146226516063 0.16283554233834624 -0.20443376949977485 0.16597771826628149 0.12498061867499642 -0.025373395676445438 -0.038736793315549328 -0.16609650676385612 0.036128875801010013 0.13053504676919087 -0.20965027858293503 -0.25870325003261563 -0.0079871811427855623 -0.018344207382644005 -0.27871012045613475 0.034901978143752364 -0.25807369815813325 -0.15925214147772498 0.10996458846653778 0.13072718258711064 -0.20721378851379943 0.23158920811258532 -0.066074498911258203 0.063233260594286564 -0.18631863235815133 0.07508265795218938 -0.065467115024942374 -0.0097415486390186462 -0.042432801353323862 0.19607044424322762 0.13577062496612843 0.0075525744235336555 0.20132669793114699 0.17029071103849425 0.2943881829243431 -0.085627169296189257 -0.26982981990865579 0.086883536908195724 -0.042975068737998202 -0.065618974948332368 0.10398391186129914 -0.12764652272484531 -0.086351657330601378 -0.13502137155614755 -0.10728859497809806 -0.09209037979827206 0.092505210296299656 -0.1068716200728491 0.17294176438105488 -0.13584710634240477 -0.18575085312707473 0.045896849046918792 -0.25793425740661508 0.23452248162354167 0.10457105956300682 -0.16370671837292503 0.071635434901944975 -0.043766156697327536 0.25882182139125243 -0.043817811008438221 -0.17267943422107285 0.17160962138829175 0.16910483011765487 0.014722486415507037 0.19837570017411968
leaf_weight=14.831170484423639 21.197446659207344 12.269922345876696 18.203150182962418 18.473806485533718 13.575576782226561 17.460340216755867 17.693572044372559 50.253911182284355 11.78445239365101 11.880058869719507 11.411234080791475 20.162198543548584 18.051775842905045 15.77621968090534 12.136823579668997 12.775794938206671 24.001463577151299 12.710160106420515 14.443938717246054 71.350789040327072 16.884329676628113 11.869362995028498 11.888725429773329 28.442431464791298 22.433486878871918 10.467782184481623 12.45462481677532 14.623433396220209 14.296862974762915 12.124785616993902 21.005449518561363 15.933422535657881 16.814057320356369 12.776638597249987 15.364934444427492 13.92257836461067 11.856364771723747 13.046329334378241 12.143050730228424 21.900843948125839 17.254971981048584 12.237012684345247 12.58224977552891 21.794343054294586 14.066376850008966 18.928108990192413 16.033683106303215 13.038650393486021 11.641640678048136 17.15247368812561 20.081893563270569 20.986227259039879 21.867799952626228 31.773322105407715 12.210588514804838 12.215346053242682 23.174183815717697 12.735628455877306 9.3213200122117978 15.144305452704428 12.118118956685068 15.78123953938484 14.310793429613112 22.715372294187546 12.528563529253008 12.752706497907637 11.883984193205832 19.431496307253838 22.93386010825634 58.554380655288696 13.850734129548075 22.026729628443718 12.109891489148138 12.615792423486708 11.895205065608023 12.549453660845755 12.216698020696638 12.986765995621679 13.007086083292959 16.95675340294838 19.417784422636032 14.874052688479422 12.358762949705122 12.392876431345938 12.61023525893688 12.044283762574194 40.747792080044746 11.99805675446987 12.089454203844069 11.477359324693678 10.334187611937521 12.035635024309157 9.1182749867439252
leaf_count=61 89 51 82 80 58 80 79 219 50 50 56 89 82 69 50 54 99 58 61 312 72 51 50 119 98 50 52 61 60 51 89 72 72 53 64 58 50 54 51 93 72 51 63 94 59 78 69 55 55 79 88 97 92 147 51 51 96 63 51 66 55 73 65 94 53 54 50 81 95 253 58 93 51 53 52 52 51 56 54 80 83 68 51 52 57 50 224 50 57 53 56 50 50
internal_value=0 0.0203508 0.0402441 0.0798108 0.00418793 0.0301995 0.0257134 0.0619691 0.0527696 -0.0638303 -0.0845534 0.0773375 0.0194443 -0.0224066 -0.0466118 0.0567464 -0.0695719 -0.0727843 -0.058621 0.0850016 0.135922 0.0940001 -0.0691765 0.104922 -0.0814902 0.113788 -0.0724711 -0.0978709 -0.055002 0.0388419 -0.10883 0.0588404 0.00867697 -0.0164388 0.0280415 -0.0542148 -0.0872956 -0.0111871 -0.0882287 -0.107653 -0.156392 -0.0678538 -0.0968416 -0.070668 -0.10492 -0.055493 -0.025865 0.0293946 -0.166687 0.0919142 0.0706501 0.13895 -0.119556 0.0204169 -0.168572 -0.106103 -0.107951 0.15512 0.187914 0.118217 0.141168 0.0809966 0.193549 -0.0640061 -0.0887512 -0.0236002 -0.158841 -0.0170698 0.026193 -0.10333 0.00329909 -0.0655563 -0.00279575 -0.180652 0.00231631 -0.192903 0.0703538 -0.0443537 -0.106279 0.110309 -0.200575 0.160174 0.0251475 -0.0914854 0.135191 0.0243602 0.221059 0.0112822 -0.224279 0.220896 0.234265 -0.0240204 0.247769
internal_weight=0 1297.15 1000.05 476.815 523.24 378.495 242.765 287.082 201.897 144.745 302.507 164.192 157.682 100.992 297.096 144.03 91.4135 279.006 242.439 112.569 234.05 56.6904 227.995 99.7932 206.798 129.399 202.421 108.704 63.8267 36.0405 67.412 46.6685 94.675 77.8609 52.0772 37.7051 175.546 37.0457 23.9994 138.5 65.4328 184.364 117.369 92.2374 43.5319 85.2157 66.2876 27.6621 36.5671 107.454 89.9939 38.1387 36.1647 51.8552 26.277 23.857 40.8678 187.382 99.214 88.1678 73.0235 33.9844 39.0391 73.0671 60.6124 35.4681 44.8773 66.9952 42.3654 70.4431 30.7351 46.4065 24.3798 25.1444 23.7646 25.1317 39.9404 31.4606 25.7837 29.6924 32.9934 32.9258 27.7237 24.6299 24.7284 26.8755 69.5216 23.7825 23.5007 21.9451 60.2003 23.9157 49.8661
internal_count=7000 5684 4442 2167 2275 1665 1043 1282 868 610 1316 710 688 435 1242 621 383 1203 1039 485 1124 253 978 431 889 594 847 459 268 151 284 202 395 323 216 158 736 155 101 581 275 791 512 397 182 366 288 116 164 491 411 176 152 235 110 106 175 922 524 398 332 155 177 306 254 148 191 279 176 303 130 195 102 106 103 115 166 136 107 143 141 150 115 103 112 111 381 100 113 103 330 100 274
shrinkage=0.2


end of trees

feature_importances:
Column_25=56
Column_24=41
Column_27=37
Column_5=33
Column_21=31
Column_22=31
Column_9=29
Column_26=28
Column_0=25
Column_3=20
Column_13=18
Column_18=18
Column_4=15
Column_1=13
Column_2=11
Column_14=11
Column_17=10
Column_19=9
Column_11=8
Column_6=7
Column_7=7
Column_15=7
Column_10=6
Column_23=6
Column_8=3
Column_12=2
Column_16=2

parameters:
[boosting: gbdt]
[objective: binary]
[metric: average_precision]
[tree_learner: serial]
[device_type: cpu]
[data: ]
[valid: ]
[num_iterations: 5]
[learning_rate: 0.2]
[num_leaves: 1000]
[num_threads: 0]
[deterministic: 0]
[force_col_wise: 0]
[force_row_wise: 0]
[histogram_pool_size: -1]
[max_depth: 10]
[min_data_in_leaf: 50]
[min_sum_hessian_in_leaf: 1]
[bagging_fraction: 1]
[pos_bagging_fraction: 1]
[neg_bagging_fraction: 1]
[bagging_freq: 0]
[bagging_seed: 3]
[feature_fraction: 1]
[feature_fraction_bynode: 1]
[feature_fraction_seed: 2]
[extra_trees: 0]
[extra_seed: 6]
[early_stopping_round: 0]
[first_metric_only: 0]
[max_delta_step: 0]
[lambda_l1: 0]
[lambda_l2: 0]
[min_gain_to_split: 0]
[drop_rate: 0.1]
[max_drop: 50]
[skip_drop: 0.5]
[xgboost_dart_mode: 0]
[uniform_drop: 0]
[drop_seed: 4]
[top_rate: 0.2]
[other_rate: 0.1]
[min_data_per_group: 100]
[max_cat_threshold: 32]
[cat_l2: 10]
[cat_smooth: 10]
[max_cat_to_onehot: 4]
[top_k: 20]
[monotone_constraints: ]
[monotone_constraints_method: basic]
[monotone_penalty: 0]
[feature_contri: ]
[forcedsplits_filename: ]
[refit_decay_rate: 0.9]
[cegb_tradeoff: 1]
[cegb_penalty_split: 0]
[cegb_penalty_feature_lazy: ]
[cegb_penalty_feature_coupled: ]
[path_smooth: 0]
[interaction_constraints: ]
[verbosity: 1]
[saved_feature_importance_type: 0]
[max_bin: 255]
[max_bin_by_feature: ]
[min_data_in_bin: 3]
[bin_construct_sample_cnt: 200000]
[data_random_seed: 1]
[is_enable_sparse: 1]
[enable_bundle: 1]
[use_missing: 1]
[zero_as_missing: 0]
[feature_pre_filter: 1]
[pre_partition: 0]
[two_round: 0]
[header: 0]
[label_column: ]
[weight_column: ]
[group_column: ]
[ignore_column: ]
[categorical_feature: ]
[forcedbins_filename: ]
[objective_seed: 5]
[num_class: 1]
[is_unbalance: 0]
[scale_pos_weight: 1]
[sigmoid: 1]
[boost_from_average: 1]
[reg_sqrt: 0]
[alpha: 0.9]
[fair_c: 1]
[poisson_max_delta_step: 0.7]
[tweedie_variance_power: 1.5]
[lambdarank_truncation_level: 30]
[lambdarank_norm: 1]
[label_gain: ]
[eval_at: ]
[multi_error_top_k: 1]
[auc_mu_weights: ]
[num_machines: 1]
[local_listen_port: 12400]
[time_out: 120]
[machine_list_filename: ]
[machines: ]
[gpu_platform_id: -1]
[gpu_device_id: -1]
[gpu_use_dp: 0]
[num_gpu: 1]

end of parameters

pandas_categorical:null
